svm_type c_svc
kernel_type rbf
gamma 50
nr_class 2
total_sv 30
rho -0.233785
label 1 -1
nr_sv 17 13
SV
0.7988906785889853 1:-0.37755102 2:-0.47959184 
0.4544906007329051 1:-0.45918367 2:-0.33673469 
2.320242887167076 1:0.39795918 2:-0.23469388 
0.959607220937341 1:-0.31632653 2:-0.21428571 
1.079393654369897 1:-0.29591837 2:-0.091836735 
2.571192804517628 1:0.33673469 2:-0.030612245 
0.2236906190670999 1:-0.2755102 2:0.030612245 
0.8459033858790798 1:0.31632653 2:0.091836735 
0.8479570890595181 1:-0.21428571 2:0.13265306 
1.663419355964376 1:0.21428571 2:0.19387755 
0.3338849655358722 1:-0.39795918 2:0.23469388 
3.038116132312575 1:-0.051020408 2:0.25510204 
0.3644062989806588 1:0.39795918 2:0.29591837 
0.5420640135393813 1:-0.41836735 2:0.33673469 
0.3918758716771111 1:0.31632653 2:0.39795918 
0.5560670860823376 1:0.13265306 2:0.43877551 
0.5845726119219341 1:-0.17346939 2:0.45918367 
-0.8475076858415045 1:-0.071428571 2:-0.47959184 
-0.4013879163035862 1:0.2755102 2:-0.43877551 
-0.5157772323159473 1:-0.21428571 2:-0.39795918 
-1.169766392183258 1:0.41836735 2:-0.39795918 
-0.9449645361162919 1:0.31632653 2:-0.33673469 
-0.9804287342857145 1:-0.21428571 2:-0.31632653 
-0.8784478240847922 1:0.010204082 2:-0.31632653 
-1.607956423843107 1:0.29591837 2:-0.17346939 
-1.843002923394532 1:-0.17346939 2:-0.1122449 
-1.743754390353813 1:0.2755102 2:-0.091836735 
-0.4846840415752148 1:0.071428571 2:-0.071428571 
-2.655900177457136 1:0.21428571 2:0.071428571 
-3.502196998578881 1:-0.030612245 2:0.17346939 
