svm_type c_svc
kernel_type rbf
gamma 50
nr_class 2
total_sv 30
rho 0.233777
label 1 -1
nr_sv 13 17
SV
0.8476028302035977 1:-0.071428571 2:-0.47959184 
0.4009230793107478 1:0.2755102 2:-0.43877551 
0.5153479136159567 1:-0.21428571 2:-0.39795918 
1.169737125667403 1:0.41836735 2:-0.39795918 
0.9453196494632686 1:0.31632653 2:-0.33673469 
0.9807346748195677 1:-0.21428571 2:-0.31632653 
0.8781951668003322 1:0.010204082 2:-0.31632653 
1.607960861215724 1:0.29591837 2:-0.17346939 
1.843029412361249 1:-0.17346939 2:-0.1122449 
1.743963089944542 1:0.2755102 2:-0.091836735 
0.4848799738865402 1:0.071428571 2:-0.071428571 
2.655202217898128 1:0.21428571 2:0.071428571 
3.500838712854628 1:-0.030612245 2:0.17346939 
-0.7987038919832171 1:-0.37755102 2:-0.47959184 
-0.453699977473159 1:-0.45918367 2:-0.33673469 
-2.320895465952714 1:0.39795918 2:-0.23469388 
-0.9598455710747492 1:-0.31632653 2:-0.21428571 
-1.079265719009062 1:-0.29591837 2:-0.091836735 
-2.571017959843152 1:0.33673469 2:-0.030612245 
-0.223547496067534 1:-0.2755102 2:0.030612245 
-0.8457077003938833 1:0.31632653 2:0.091836735 
-0.8482273659285616 1:-0.21428571 2:0.13265306 
-1.663001692602885 1:0.21428571 2:0.19387755 
-0.3340935199860195 1:-0.39795918 2:0.23469388 
-3.03667021624054 1:-0.051020408 2:0.25510204 
-0.364542852852155 1:0.39795918 2:0.29591837 
-0.5418016834858629 1:-0.41836735 2:0.33673469 
-0.3917280208500126 1:0.31632653 2:0.39795918 
-0.5561010821511486 1:0.13265306 2:0.43877551 
-0.5848844921470286 1:-0.17346939 2:0.45918367 
