svm_type c_svc
kernel_type rbf
gamma 100
nr_class 2
total_sv 40
rho -0.142083
label 1 -1
nr_sv 21 19
SV
0.7333857229591282 1:-0.37755102 2:-0.47959184 
0.3227772090778911 1:-0.45918367 2:-0.41836735 
0.4876764858435785 1:-0.45918367 2:-0.33673469 
0.3962327694951705 1:-0.37755102 2:-0.2755102 
1.137936226075374 1:0.39795918 2:-0.23469388 
0.6442495180916561 1:-0.31632653 2:-0.21428571 
0.540396928531292 1:0.45918367 2:-0.13265306 
0.8458451293058439 1:-0.29591837 2:-0.091836735 
1.508804199450555 1:0.33673469 2:-0.030612245 
0.5481462481228889 1:-0.2755102 2:0.030612245 
0.9611424244398765 1:0.31632653 2:0.091836735 
0.7570664255802596 1:-0.21428571 2:0.13265306 
1.148473299239305 1:0.21428571 2:0.19387755 
0.6280232532578043 1:-0.39795918 2:0.23469388 
1.679893224628092 1:-0.051020408 2:0.25510204 
0.710216597132255 1:0.39795918 2:0.29591837 
0.6447118132916559 1:-0.41836735 2:0.33673469 
0.3987536081374731 1:-0.051020408 2:0.37755102 
0.6988819172990292 1:0.31632653 2:0.39795918 
0.8245998704449343 1:0.13265306 2:0.43877551 
0.8059086911434274 1:-0.17346939 2:0.45918367 
-1.052678242616267 1:-0.071428571 2:-0.47959184 
-0.8447655407819163 1:0.2755102 2:-0.43877551 
-0.6628217450059614 1:-0.21428571 2:-0.39795918 
-0.9810643298657752 1:0.41836735 2:-0.39795918 
-0.563619255590347 1:0.31632653 2:-0.33673469 
-0.8693697166912274 1:-0.21428571 2:-0.31632653 
-1.045605524405607 1:0.010204082 2:-0.31632653 
-0.7339249233540982 1:0.25510204 2:-0.25510204 
-0.711818178173094 1:-0.071428571 2:-0.17346939 
-0.4962634120175059 1:0.29591837 2:-0.17346939 
-1.151818231846754 1:-0.17346939 2:-0.1122449 
-1.536953799104175 1:0.2755102 2:-0.091836735 
-0.9333704827956478 1:0.071428571 2:-0.071428571 
-0.8279724321190883 1:-0.051020408 2:0.010204082 
-0.05198044112259183 1:0.21428571 2:0.010204082 
-1.496348091243801 1:0.21428571 2:0.071428571 
-0.4262430364750613 1:0.13265306 2:0.091836735 
-0.1921986876918173 1:0.051020408 2:0.13265306 
-1.844305490646753 1:-0.030612245 2:0.17346939 
